annotations_hsy2_part1	0.12682238594379197	-0.02384296923825813	-0.03109469327314939	0.31730126296080324	0.16719314574180105	0.04527496229381696	0.06098911302576938	0.21371811883425493	0.2373479783716493	0.22280286279952452	0.14132053480806633	0.14931241060518935	-0.13243794247060978	0.0167930923365361	-0.22859355486283378	0.4643761440644712	0.15795489139753804	-0.04982436860805508	0.11584958521743251	0.06850866811015388	-0.09215461385859564	-0.0009872080351884097	0.016022261062817043	0.20213360211902417	-0.00873614335450379	0.12316825527431008	0.03450940299626331	-0.02625960117886395	0.1951205781057432	0.097016458785421	-0.19689715768344968	-0.033400132814305226	0.04784133365108442	0.3670854677085855	-0.03889695571171155	-0.08626316361591596	0.18869681409362876	-0.14421323205386322	0.279405919466619	0.2753192464744951	0.02666424490476016	0.1343153033074506	0.06760986973041389	-0.37340838602908855	-0.1405404117237691	-0.24543088173881375	-0.22616550750219175	-0.2631344682440975	0.3108295700199367	-0.06797579665862624	-0.49325099804902617	0.14194748908249916	0.08227385497911302	-0.1234896740511113	0.49819239500159856	-0.05839668585528505	-0.22976663793847746	0.006398360475385647	0.11077669150020449	0.0925561159880004	-0.25305890654170016	0.16169490812456855	0.038248997974923225	0.10755416988837257	-0.2690456684564987	-0.3530916712762214	0.06531992508656127	0.053779640800568206	-0.05150306314720688	0.05374310120272636	0.018999014389675453	0.23516936416274295	-0.2192625308636896	0.07313948052733565	-0.22855278830890063	-0.18307542930013246	0.06381363314230823	0.05258993026794127	-0.3465699089680733	0.20742741468588863	0.1009993138595116	0.26454631963364467	-0.032440927268547914	0.13310497109904332	0.08247826654985495	-0.10901336705168002	-0.01494897972488859	-0.16920173938001792	-0.3423029420400601	0.1042381901045868	-0.2036722229851014	0.030230686235602145	-0.31924297126155704	0.28569822630214303	-0.010885623492482658	-0.2769529960812623	-0.28125565108234796	0.0738804271541656	-0.4077597435738524	0.41033585932773703
annotations_hsy2_part2	0.0506310960889286	0.10130186822820772	0.07230073101163263	0.22142842378287528	0.3264437261539026	-0.04215479173597867	0.07114521711917106	0.06327001016947051	0.23476628227461735	0.008051004015046253	0.22829233883050215	-0.001045829616174272	0.11227478138490674	0.054956902774292396	-0.2277829372003355	0.16777454415079482	0.1939377635992351	-0.132883490767712	-0.005810881145488388	-0.08706385233508104	0.16928294675033714	-0.03173481736362426	0.07377529786173137	-0.04067607325622617	-0.1349565447643061	0.15178300458129595	0.0038054440918274747	0.06189808258924644	0.25724572944520835	-0.1339818323142421	0.0680851180973251	0.024953272154119667	-0.03131421993917804	0.3055300159167405	0.06681452763331681	0.03741786660758046	0.2210311868280574	-0.2776777783220681	0.06747733805322727	0.3410475458599135	-0.11772354760213982	-0.012096999265302909	-0.08769730078070322	-0.2378058741948614	-0.12145605950692272	-0.2161432836758394	0.09669035618902654	-0.12171170869790318	0.2251558830260254	0.07683543777690394	-0.3130404025328021	0.1178424077049158	0.11338545539242549	-0.2040935804769234	0.4362664323480182	0.05612635897835984	-0.16873045203160225	0.1452713698812018	-0.012387436650504272	0.08383735188765817	-0.15429218772995715	-0.08701575121853432	-0.05273483444195346	-0.02984627569331116	-0.2335740352068672	-0.06980303314307759	-0.10539607839916659	0.05410170041472422	-0.008191521422536088	0.007634824707911418	-0.05314850399169598	0.05360027448943056	-0.049317955407860416	0.11391372924231631	-0.12852878662843578	-0.1767543976930606	0.06369812678369056	0.05752944489304118	-0.23969181152366195	0.07308241496846636	-0.09969605756655033	0.31717060220928156	-0.14528418815569238	0.11414928285872143	0.01985152721722169	-0.061938706667355875	0.12465068912611314	-0.06497460515647158	-0.0664934216568896	0.2374159488213491	-0.08555826157847198	0.07654293203520476	-0.14398235933711714	0.20359666237517035	0.0019328165155891757	0.004888372366675612	-0.21463277829995892	0.08128808166143994	-0.2627354554648663	0.24906882641361225
annotations_hsy2_part3	0.18274038252525998	0.09233174538301368	0.13083099479045776	0.2612457272150779	0.26196218626953865	0.07176342507707201	0.19032339283627614	0.10075237432708016	0.30881990852562324	0.035422323403426305	0.44804364379497197	-0.14146640259937707	0.2771127531600381	0.12035280247892208	-0.4203174153020062	-0.04081488929896563	0.3569388857506573	-0.16308608114552636	0.0006276796567448317	-0.03492641843798472	0.24173192425304588	-0.051314649644051955	-0.07033614487065377	-0.091668318549495	-0.2598450253630905	0.15753235112079314	-0.11553726207026434	0.2914745857957834	0.37144153048729495	-0.18030952979634296	-0.08580933196822806	0.22733522702190476	-0.08914233615467658	0.2139632500358459	0.14934335318765957	0.14683751022877492	-0.04956935896110864	-0.4548219488764269	0.005740174905442305	0.4048768089125549	-0.12783379459648056	-0.10326543312551578	0.05555067718210576	-0.10661056662126123	-0.18808434891960615	0.004788103996753585	0.01115982101124215	-0.11770007151047457	-0.06910626292898862	0.04429052715706664	-0.18702978504715959	0.0018960627642855565	-0.16628521104414337	-0.0003102133494205184	0.41052769109603543	0.13898338603810992	-0.2725126963487829	0.07936127924318198	-0.02523036454386778	0.2864039346123283	-0.3762167729579528	-0.4351758887529444	-0.15403630657461417	-0.05475769845226456	0.07365386146786387	0.14843356295932586	-0.22954627142353556	-0.11288064167812428	-0.14474588811884517	-0.0812968804134355	-0.118610387115954	0.07386170184375825	-0.03337077478704493	-0.08181116903920647	-0.2684483603692891	-0.21275614052587888	0.06850239874361529	-0.098422134035829	-0.1422119046161188	0.10646877411084116	-0.2793784117501203	0.22052112223405773	-0.0845584593357943	0.08905667979684118	-0.18198183911640672	-0.10479158229600073	-0.01765355233517083	0.01814421538978217	0.15112343445566034	0.19588824818799708	-0.24841335517509613	-0.1843118417326908	-0.10884381518352727	0.2081235651788652	-0.10757259254719483	0.03959974995849417	-0.3887333805839249	-0.13160035451481708	-0.06033896832529562	0.14721109772757437
